digraph Tree {
node [shape=box, style="filled, rounded", color="black", fontname=helvetica] ;
edge [fontname=helvetica] ;
0 [label=<petal length (cm) &le; 2.6<br/>gini = 0.6606<br/>samples = 100<br/>value = [39, 33, 28]<br/>class = setosa>, fillcolor="#e5813917"] ;
1 [label=<gini = 0.0<br/>samples = 39<br/>value = [39, 0, 0]<br/>class = setosa>, fillcolor="#e58139ff"] ;
0 -> 1 [labeldistance=2.5, labelangle=45, headlabel="True"] ;
2 [label=<petal width (cm) &le; 1.65<br/>gini = 0.4966<br/>samples = 61<br/>value = [0, 33, 28]<br/>class = versicolor>, fillcolor="#39e58127"] ;
0 -> 2 [labeldistance=2.5, labelangle=-45, headlabel="False"] ;
3 [label=<sepal length (cm) &le; 7.1<br/>gini = 0.0605<br/>samples = 32<br/>value = [0, 31, 1]<br/>class = versicolor>, fillcolor="#39e581f7"] ;
2 -> 3 ;
4 [label=<gini = 0.0<br/>samples = 31<br/>value = [0, 31, 0]<br/>class = versicolor>, fillcolor="#39e581ff"] ;
3 -> 4 ;
5 [label=<gini = 0.0<br/>samples = 1<br/>value = [0, 0, 1]<br/>class = virginica>, fillcolor="#8139e5ff"] ;
3 -> 5 ;
6 [label=<petal width (cm) &le; 1.75<br/>gini = 0.1284<br/>samples = 29<br/>value = [0, 2, 27]<br/>class = virginica>, fillcolor="#8139e5ec"] ;
2 -> 6 ;
7 [label=<sepal length (cm) &le; 5.8<br/>gini = 0.5<br/>samples = 2<br/>value = [0, 1, 1]<br/>class = versicolor>, fillcolor="#39e58100"] ;
6 -> 7 ;
8 [label=<gini = 0.0<br/>samples = 1<br/>value = [0, 0, 1]<br/>class = virginica>, fillcolor="#8139e5ff"] ;
7 -> 8 ;
9 [label=<gini = 0.0<br/>samples = 1<br/>value = [0, 1, 0]<br/>class = versicolor>, fillcolor="#39e581ff"] ;
7 -> 9 ;
10 [label=<petal length (cm) &le; 4.85<br/>gini = 0.0713<br/>samples = 27<br/>value = [0, 1, 26]<br/>class = virginica>, fillcolor="#8139e5f5"] ;
6 -> 10 ;
11 [label=<sepal width (cm) &le; 3.1<br/>gini = 0.4444<br/>samples = 3<br/>value = [0, 1, 2]<br/>class = virginica>, fillcolor="#8139e57f"] ;
10 -> 11 ;
12 [label=<gini = 0.0<br/>samples = 2<br/>value = [0, 0, 2]<br/>class = virginica>, fillcolor="#8139e5ff"] ;
11 -> 12 ;
13 [label=<gini = 0.0<br/>samples = 1<br/>value = [0, 1, 0]<br/>class = versicolor>, fillcolor="#39e581ff"] ;
11 -> 13 ;
14 [label=<gini = 0.0<br/>samples = 24<br/>value = [0, 0, 24]<br/>class = virginica>, fillcolor="#8139e5ff"] ;
10 -> 14 ;
}